digraph Tree {
node [shape=box, style="filled", color="black"] ;
0 [label="Тип_Спортивный <= 0.5\ngini = 0.4898\nsamples = 7\nvalue = [4, 3]", fillcolor="#e5813940"] ;
1 [label="Цвет_Красный <= 0.5\ngini = 0.4444\nsamples = 3\nvalue = [1, 2]", fillcolor="#399de57f"] ;
0 -> 1 [labeldistance=2.5, labelangle=45, headlabel="True"] ;
2 [label="gini = 0.5\nsamples = 2\nvalue = [1, 1]", fillcolor="#e5813900"] ;
1 -> 2 ;
3 [label="gini = 0.0\nsamples = 1\nvalue = [0, 1]", fillcolor="#399de5ff"] ;
1 -> 3 ;
4 [label="Производство_США <= 0.5\ngini = 0.375\nsamples = 4\nvalue = [3, 1]", fillcolor="#e58139aa"] ;
0 -> 4 [labeldistance=2.5, labelangle=-45, headlabel="False"] ;
5 [label="gini = 0.0\nsamples = 2\nvalue = [2, 0]", fillcolor="#e58139ff"] ;
4 -> 5 ;
6 [label="gini = 0.5\nsamples = 2\nvalue = [1, 1]", fillcolor="#e5813900"] ;
4 -> 6 ;
}