digraph Tree {
node [shape=box, style="filled", color="black"] ;
0 [label="Доход_низкий <= 0.5\ngini = 0.4898\nsamples = 7\nvalue = [4, 3]", fillcolor="#e5813940"] ;
1 [label="Внешность_приятная <= 0.5\ngini = 0.4444\nsamples = 6\nvalue = [4, 2]", fillcolor="#e581397f"] ;
0 -> 1 [labeldistance=2.5, labelangle=45, headlabel="True"] ;
2 [label="gini = 0.0\nsamples = 1\nvalue = [0, 1]", fillcolor="#399de5ff"] ;
1 -> 2 ;
3 [label="Доход_средний <= 0.5\ngini = 0.32\nsamples = 5\nvalue = [4, 1]", fillcolor="#e58139bf"] ;
1 -> 3 ;
4 [label="gini = 0.0\nsamples = 3\nvalue = [3, 0]", fillcolor="#e58139ff"] ;
3 -> 4 ;
5 [label="Возраст_пожилой <= 0.5\ngini = 0.5\nsamples = 2\nvalue = [1, 1]", fillcolor="#e5813900"] ;
3 -> 5 ;
6 [label="gini = 0.0\nsamples = 1\nvalue = [1, 0]", fillcolor="#e58139ff"] ;
5 -> 6 ;
7 [label="gini = 0.0\nsamples = 1\nvalue = [0, 1]", fillcolor="#399de5ff"] ;
5 -> 7 ;
8 [label="gini = 0.0\nsamples = 1\nvalue = [0, 1]", fillcolor="#399de5ff"] ;
0 -> 8 [labeldistance=2.5, labelangle=-45, headlabel="False"] ;
}